<?xml version="1.0"?>
<opencv_storage>
<cascade>
  <stageType>BOOST</stageType>
  <featureType>HAAR</featureType>
  <height>20</height>
  <width>20</width>
  <stageParams>
    <boostType>GAB</boostType>
    <minHitRate>9.9500000476837158e-01</minHitRate>
    <maxFalseAlarm>5.0000000000000000e-01</maxFalseAlarm>
    <weightTrimRate>9.4999999999999996e-01</weightTrimRate>
    <maxDepth>1</maxDepth>
    <maxWeakCount>100</maxWeakCount></stageParams>
  <featureParams>
    <maxCatCount>0</maxCatCount>
    <featSize>1</featSize>
    <mode>BASIC</mode></featureParams>
  <stageNum>12</stageNum>
  <stages>
    <!-- stage 0 -->
    <_>
      <maxWeakCount>6</maxWeakCount>
      <stageThreshold>-8.2119965553283691e-01</stageThreshold>
      <weakClassifiers>
        <_>
          <internalNodes>
            0 -1 46 2.4718750268220901e-02</internalNodes>
          <leafValues>
            -3.5590279102325439e-01 8.4625321626663208e-01</leafValues></_>
        <_>
          <internalNodes>
            0 -1 74 -8.9676324278116226e-03</internalNodes>
          <leafValues>
            7.6547968387603760e-01 -4.5904579758644104e-01</leafValues></_>
        <_>
          <internalNodes>
            0 -1 2 3.0109355226159096e-02</internalNodes>
          <leafValues>
            -4.4419825077056885e-01 5.9452790021896362e-01</leafValues></_>
        <_>
          <internalNodes>
            0 -1 31 1.2873545289039612e-02</internalNodes>
          <leafValues>
            -3.5510146617889404e-01 6.5523487329483032e-01</leafValues></_>
        <_>
          <internalNodes>
            0 -1 143 -1.0458447970449924e-02</internalNodes>
          <leafValues>
            6.1659759283065796e-01 -3.6813399195671082e-01</leafValues></_>
        <_>
          <internalNodes>
            0 -1 104 -1.8825551960617304e-03</internalNodes>
          <leafValues>
            -8.8787984848022461e-01 2.3279196023941040e-01</leafValues></_></weakClassifiers></_>
    <!-- stage 1 -->
    <_>
      <maxWeakCount>6</maxWeakCount>
      <stageThreshold>-8.5487955808639526e-01</stageThreshold>
      <weakClassifiers>
        <_>
          <internalNodes>
            0 -1 38 3.1454764306545258e-02</internalNodes>
          <leafValues>
            -2.4013157188892365e-01 8.0323451757431030e-01</leafValues></_>
        <_>
          <internalNodes>
            0 -1 35 -1.3337468728423119e-02</internalNodes>
          <leafValues>
            6.7856812477111816e-01 -3.9410725235939026e-01</leafValues></_>
        <_>
          <internalNodes>
            0 -1 132 -1.5889000147581100e-02</internalNodes>
          <leafValues>
            6.8029719591140747e-01 -3.0161347985267639e-01</leafValues></_>
        <_>
          <internalNodes>
            0 -1 69 4.5181978493928909e-03</internalNodes>
          <leafValues>
            2.0255833864212036e-01 -9.0908181667327881e-01</leafValues></_>
        <_>
          <internalNodes>
            0 -1 1 4.4101759791374207e-02</internalNodes>
          <leafValues>
            -3.6271962523460388e-01 5.5794733762741089e-01</leafValues></_>
        <_>
          <internalNodes>
            0 -1 93 -4.0742685087025166e-03</internalNodes>
          <leafValues>
            -9.4937610626220703e-01 2.4113406240940094e-01</leafValues></_></weakClassifiers></_>
    <!-- stage 2 -->
    <_>
      <maxWeakCount>8</maxWeakCount>
      <stageThreshold>-7.1910983324050903e-01</stageThreshold>
      <weakClassifiers>
        <_>
          <internalNodes>
            0 -1 43 -1.1763682588934898e-02</internalNodes>
          <leafValues>
            7.1464329957962036e-01 -2.1960072219371796e-01</leafValues></_>
        <_>
          <internalNodes>
            0 -1 18 3.9635770022869110e-02</internalNodes>
          <leafValues>
            -4.0980121493339539e-01 6.2120705842971802e-01</leafValues></_>
        <_>
          <internalNodes>
            0 -1 139 -1.7239861190319061e-02</internalNodes>
          <leafValues>
            6.2358343601226807e-01 -3.1094455718994141e-01</leafValues></_>
        <_>
          <internalNodes>
            0 -1 95 1.7433539032936096e-03</internalNodes>
          <leafValues>
            2.4280512332916260e-01 -8.6022806167602539e-01</leafValues></_>
        <_>
          <internalNodes>
            0 -1 9 3.4883886575698853e-02</internalNodes>
          <leafValues>
            -3.3751356601715088e-01 5.7845157384872437e-01</leafValues></_>
        <_>
          <internalNodes>
            0 -1 68 -5.1301880739629269e-03</internalNodes>
          <leafValues>
            -8.7283384799957275e-01 2.1948066353797913e-01</leafValues></_>
        <_>
          <internalNodes>
            0 -1 66 2.8024367056787014e-03</internalNodes>
          <leafValues>
            1.3136757910251617e-01 -8.8281643390655518e-01</leafValues></_>
        <_>
          <internalNodes>
            0 -1 26 -5.1007568836212158e-02</internalNodes>
          <leafValues>
            -8.8730394840240479e-01 1.3360203802585602e-01</leafValues></_></weakClassifiers></_>
    <!-- stage 3 -->
    <_>
      <maxWeakCount>9</maxWeakCount>
      <stageThreshold>-9.1426038742065430e-01</stageThreshold>
      <weakClassifiers>
        <_>
          <internalNodes>
            0 -1 5 2.7609635144472122e-02</internalNodes>
          <leafValues>
            -1.8637992441654205e-01 6.9949495792388916e-01</leafValues></_>
        <_>
          <internalNodes>
            0 -1 37 1.2914383783936501e-02</internalNodes>
          <leafValues>
            -3.2661932706832886e-01 5.9276461601257324e-01</leafValues></_>
        <_>
          <internalNodes>
            0 -1 73 -1.4020815491676331e-02</internalNodes>
          <leafValues>
            6.3956612348556519e-01 -3.4241047501564026e-01</leafValues></_>
        <_>
          <internalNodes>
            0 -1 109 -4.8687551170587540e-03</internalNodes>
          <leafValues>
            -8.9127546548843384e-01 2.0504383742809296e-01</leafValues></_>
        <_>
          <internalNodes>
            0 -1 135 -7.9273041337728500e-03</internalNodes>
          <leafValues>
            4.4317960739135742e-01 -3.7445312738418579e-01</leafValues></_>
        <_>
          <internalNodes>
            0 -1 56 2.8361638542264700e-03</internalNodes>
          <leafValues>
            2.0117254555225372e-01 -7.7723258733749390e-01</leafValues></_>
        <_>
          <internalNodes>
            0 -1 106 -1.4419103041291237e-02</internalNodes>
          <leafValues>
            -8.1020247936248779e-01 1.6394536197185516e-01</leafValues></_>
        <_>
          <internalNodes>
            0 -1 84 7.7238166704773903e-03</internalNodes>
          <leafValues>
            -3.1051695346832275e-01 5.3754878044128418e-01</leafValues></_>
        <_>
          <internalNodes>
            0 -1 92 4.3687517754733562e-03</internalNodes>
          <leafValues>
            1.8629705905914307e-01 -8.9723300933837891e-01</leafValues></_></weakClassifiers></_>
    <!-- stage 4 -->
    <_>
      <maxWeakCount>9</maxWeakCount>
      <stageThreshold>-9.0838277339935303e-01</stageThreshold>
      <weakClassifiers>
        <_>
          <internalNodes>
            0 -1 140 -1.0447520762681961e-02</internalNodes>
          <leafValues>
            6.6626358032226562e-01 -1.9311663508415222e-01</leafValues></_>
        <_>
          <internalNodes>
            0 -1 7 7.8965611755847931e-02</internalNodes>
          <leafValues>
            -2.6131853461265564e-01 5.9233438968658447e-01</leafValues></_>
        <_>
          <internalNodes>
            0 -1 29 1.3914622366428375e-02</internalNodes>
          <leafValues>
            -3.5568547248840332e-01 4.6313029527664185e-01</leafValues></_>
        <_>
          <internalNodes>
            0 -1 60 -8.6131803691387177e-03</internalNodes>
          <leafValues>
            3.3325156569480896e-01 -4.8623520135879517e-01</leafValues></_>
        <_>
          <internalNodes>
            0 -1 113 4.7708768397569656e-03</internalNodes>
          <leafValues>
            1.2380968779325485e-01 -8.8329088687896729e-01</leafValues></_>
        <_>
          <internalNodes>
            0 -1 8 1.2426889501512051e-02</internalNodes>
          <leafValues>
            -3.2905033230781555e-01 4.5332267880439758e-01</leafValues></_>
        <_>
          <internalNodes>
            0 -1 87 3.8363812491297722e-03</internalNodes>
          <leafValues>
            1.5226452052593231e-01 -9.5289796590805054e-01</leafValues></_>
        <_>
          <internalNodes>
            0 -1 53 3.8862256333231926e-03</internalNodes>
          <leafValues>
            9.8031960427761078e-02 -8.5731023550033569e-01</leafValues></_>
        <_>
          <internalNodes>
            0 -1 134 -2.5930379051715136e-03</internalNodes>
          <leafValues>
            3.4291720390319824e-01 -3.4517943859100342e-01</leafValues></_></weakClassifiers></_>
    <!-- stage 5 -->
    <_>
      <maxWeakCount>11</maxWeakCount>
      <stageThreshold>-9.5786553621292114e-01</stageThreshold>
      <weakClassifiers>
        <_>
          <internalNodes>
            0 -1 45 4.3214641511440277e-02</internalNodes>
          <leafValues>
            -6.9016151130199432e-02 7.4289983510971069e-01</leafValues></_>
        <_>
          <internalNodes>
            0 -1 62 -2.8742630966007710e-03</internalNodes>
          <leafValues>
            4.5317921042442322e-01 -3.3472338318824768e-01</leafValues></_>
        <_>
          <internalNodes>
            0 -1 43 -1.3438385911285877e-02</internalNodes>
          <leafValues>
            3.7088254094123840e-01 -3.9623758196830750e-01</leafValues></_>
        <_>
          <internalNodes>
            0 -1 96 -3.1595295295119286e-03</internalNodes>
          <leafValues>
            -8.3596163988113403e-01 1.6682194173336029e-01</leafValues></_>
        <_>
          <internalNodes>
            0 -1 130 -4.2433016002178192e-02</internalNodes>
          <leafValues>
            4.2728430032730103e-01 -3.2698008418083191e-01</leafValues></_>
        <_>
          <internalNodes>
            0 -1 0 1.7450436949729919e-02</internalNodes>
          <leafValues>
            -2.9377111792564392e-01 4.8156791925430298e-01</leafValues></_>
        <_>
          <internalNodes>
            0 -1 79 5.1538208499550819e-03</internalNodes>
          <leafValues>
            1.5282998979091644e-01 -9.3466860055923462e-01</leafValues></_>
        <_>
          <internalNodes>
            0 -1 51 4.5496799051761627e-02</internalNodes>
          <leafValues>
            1.0755170136690140e-01 -8.1755942106246948e-01</leafValues></_>
        <_>
          <internalNodes>
            0 -1 33 -1.9072605296969414e-02</internalNodes>
          <leafValues>
            -7.4064415693283081e-01 1.0503231734037399e-01</leafValues></_>
        <_>
          <internalNodes>
            0 -1 50 -6.4536109566688538e-03</internalNodes>
          <leafValues>
            5.5404824018478394e-01 -2.3085497319698334e-01</leafValues></_>
        <_>
          <internalNodes>
            0 -1 102 5.7621640153229237e-03</internalNodes>
          <leafValues>
            1.6148179769515991e-01 -8.6094075441360474e-01</leafValues></_></weakClassifiers></_>
    <!-- stage 6 -->
    <_>
      <maxWeakCount>14</maxWeakCount>
      <stageThreshold>-9.3478351831436157e-01</stageThreshold>
      <weakClassifiers>
        <_>
          <internalNodes>
            0 -1 39 1.5737321227788925e-02</internalNodes>
          <leafValues>
            -2.9142856597900391e-01 5.5199998617172241e-01</leafValues></_>
        <_>
          <internalNodes>
            0 -1 71 -3.3160094171762466e-03</internalNodes>
          <leafValues>
            4.1868698596954346e-01 -3.9335227012634277e-01</leafValues></_>
        <_>
          <internalNodes>
            0 -1 142 -1.7945628613233566e-02</internalNodes>
          <leafValues>
            5.6508076190948486e-01 -2.7059921622276306e-01</leafValues></_>
        <_>
          <internalNodes>
            0 -1 11 3.2334603369235992e-02</internalNodes>
          <leafValues>
            -2.8524175286293030e-01 3.9275115728378296e-01</leafValues></_>
        <_>
          <internalNodes>
            0 -1 122 2.6256148703396320e-03</internalNodes>
          <leafValues>
            8.6798720061779022e-02 -8.8809311389923096e-01</leafValues></_>
        <_>
          <internalNodes>
            0 -1 75 -1.0690171271562576e-02</internalNodes>
          <leafValues>
            2.4855627119541168e-01 -4.0002888441085815e-01</leafValues></_>
        <_>
          <internalNodes>
            0 -1 54 -6.6505689173936844e-03</internalNodes>
          <leafValues>
            -9.5096409320831299e-01 1.1369869858026505e-01</leafValues></_>
        <_>
          <internalNodes>
            0 -1 136 -7.6710507273674011e-03</internalNodes>
          <leafValues>
            2.9553917050361633e-01 -3.3300748467445374e-01</leafValues></_>
        <_>
          <internalNodes>
            0 -1 63 -1.0754764080047607e-01</internalNodes>
          <leafValues>
            -9.2456996440887451e-01 9.8885811865329742e-02</leafValues></_>
        <_>
          <internalNodes>
            0 -1 67 -9.8714493215084076e-03</internalNodes>
          <leafValues>
            -9.2347085475921631e-01 7.0775501430034637e-02</leafValues></_>
        <_>
          <internalNodes>
            0 -1 47 -9.3542570248246193e-03</internalNodes>
          <leafValues>
            3.5811191797256470e-01 -2.7070543169975281e-01</leafValues></_>
        <_>
          <internalNodes>
            0 -1 65 -2.2417142987251282e-02</internalNodes>
          <leafValues>
            -9.6325719356536865e-01 1.1222239583730698e-01</leafValues></_>
        <_>
          <internalNodes>
            0 -1 3 8.0307126045227051e-02</internalNodes>
          <leafValues>
            -1.4327386021614075e-01 8.6224561929702759e-01</leafValues></_>
        <_>
          <internalNodes>
            0 -1 19 1.5897933393716812e-02</internalNodes>
          <leafValues>
            -1.7348486185073853e-01 5.1437348127365112e-01</leafValues></_></weakClassifiers></_>
    <!-- stage 7 -->
    <_>
      <maxWeakCount>14</maxWeakCount>
      <stageThreshold>-6.6429853439331055e-01</stageThreshold>
      <weakClassifiers>
        <_>
          <internalNodes>
            0 -1 91 5.4364902898669243e-03</internalNodes>
          <leafValues>
            -1.3632030785083771e-01 6.3173836469650269e-01</leafValues></_>
        <_>
          <internalNodes>
            0 -1 70 4.8135351389646530e-03</internalNodes>
          <leafValues>
            1.9928310811519623e-01 -8.7020158767700195e-01</leafValues></_>
        <_>
          <internalNodes>
            0 -1 133 -9.6058379858732224e-03</internalNodes>
          <leafValues>
            3.4793394804000854e-01 -3.4950074553489685e-01</leafValues></_>
        <_>
          <internalNodes>
            0 -1 119 1.1804543435573578e-02</internalNodes>
          <leafValues>
            -1.8652626872062683e-01 7.1789735555648804e-01</leafValues></_>
        <_>
          <internalNodes>
            0 -1 36 -1.4241768047213554e-02</internalNodes>
          <leafValues>
            6.6566705703735352e-01 -1.9494570791721344e-01</leafValues></_>
        <_>
          <internalNodes>
            0 -1 82 -1.3097259216010571e-02</internalNodes>
          <leafValues>
            4.2511302232742310e-01 -2.7479892969131470e-01</leafValues></_>
        <_>
          <internalNodes>
            0 -1 94 -1.0553698986768723e-02</internalNodes>
          <leafValues>
            4.0432563424110413e-01 -2.7873957157135010e-01</leafValues></_>
        <_>
          <internalNodes>
            0 -1 114 4.0504522621631622e-03</internalNodes>
          <leafValues>
            1.1890847235918045e-01 -8.7604331970214844e-01</leafValues></_>
        <_>
          <internalNodes>
            0 -1 117 5.5847670882940292e-03</internalNodes>
          <leafValues>
            1.0780102014541626e-01 -8.7240886688232422e-01</leafValues></_>
        <_>
          <internalNodes>
            0 -1 58 -7.5999638065695763e-03</internalNodes>
          <leafValues>
            3.6842498183250427e-01 -2.8059729933738708e-01</leafValues></_>
        <_>
          <internalNodes>
            0 -1 123 -3.8620582781732082e-03</internalNodes>
          <leafValues>
            4.5472669601440430e-01 -1.8891105055809021e-01</leafValues></_>
        <_>
          <internalNodes>
            0 -1 110 -1.8981579691171646e-02</internalNodes>
          <leafValues>
            4.8477086424827576e-01 -2.0679931342601776e-01</leafValues></_>
        <_>
          <internalNodes>
            0 -1 127 5.4601235315203667e-03</internalNodes>
          <leafValues>
            1.2757773697376251e-01 -9.0878456830978394e-01</leafValues></_>
        <_>
          <internalNodes>
            0 -1 125 -9.8289418965578079e-03</internalNodes>
          <leafValues>
            4.1991776227951050e-01 -2.4965088069438934e-01</leafValues></_></weakClassifiers></_>
    <!-- stage 8 -->
    <_>
      <maxWeakCount>19</maxWeakCount>
      <stageThreshold>-1.0006449222564697e+00</stageThreshold>
      <weakClassifiers>
        <_>
          <internalNodes>
            0 -1 6 2.8847690671682358e-02</internalNodes>
          <leafValues>
            -1.6067653894424438e-01 5.9977197647094727e-01</leafValues></_>
        <_>
          <internalNodes>
            0 -1 105 -4.5468742027878761e-03</internalNodes>
          <leafValues>
            -8.4675419330596924e-01 1.7116947472095490e-01</leafValues></_>
        <_>
          <internalNodes>
            0 -1 30 1.1843010783195496e-02</internalNodes>
          <leafValues>
            -3.7717056274414062e-01 2.8164222836494446e-01</leafValues></_>
        <_>
          <internalNodes>
            0 -1 97 -9.5291770994663239e-03</internalNodes>
          <leafValues>
            3.3297187089920044e-01 -3.2131880521774292e-01</leafValues></_>
        <_>
          <internalNodes>
            0 -1 52 -4.0105014340952039e-04</internalNodes>
          <leafValues>
            2.1975249052047729e-01 -4.7066938877105713e-01</leafValues></_>
        <_>
          <internalNodes>
            0 -1 64 -7.2538144886493683e-02</internalNodes>
          <leafValues>
            -8.0950349569320679e-01 1.1885614693164825e-01</leafValues></_>
        <_>
          <internalNodes>
            0 -1 15 -2.2777821868658066e-03</internalNodes>
          <leafValues>
            2.9492524266242981e-01 -3.1466299295425415e-01</leafValues></_>
        <_>
          <internalNodes>
            0 -1 88 1.4569533523172140e-03</internalNodes>
          <leafValues>
            7.7039644122123718e-02 -9.1909736394882202e-01</leafValues></_>
        <_>
          <internalNodes>
            0 -1 141 -8.9660864323377609e-03</internalNodes>
          <leafValues>
            2.3547862470149994e-01 -3.5862663388252258e-01</leafValues></_>
        <_>
          <internalNodes>
            0 -1 103 1.5143039636313915e-03</internalNodes>
          <leafValues>
            7.3148109018802643e-02 -8.3889186382293701e-01</leafValues></_>
        <_>
          <internalNodes>
            0 -1 23 -6.7668594419956207e-03</internalNodes>
          <leafValues>
            5.2768200635910034e-01 -1.8595670163631439e-01</leafValues></_>
        <_>
          <internalNodes>
            0 -1 24 2.5179232470691204e-03</internalNodes>
          <leafValues>
            -2.1592780947685242e-01 4.4744431972503662e-01</leafValues></_>
        <_>
          <internalNodes>
            0 -1 48 4.9315616488456726e-03</internalNodes>
          <leafValues>
            -2.1450056135654449e-01 4.1222307085990906e-01</leafValues></_>
        <_>
          <internalNodes>
            0 -1 49 4.0333047509193420e-02</internalNodes>
          <leafValues>
            -1.1196964234113693e-01 7.6110541820526123e-01</leafValues></_>
        <_>
          <internalNodes>
            0 -1 83 -5.8343131095170975e-03</internalNodes>
          <leafValues>
            3.3344855904579163e-01 -2.9422935843467712e-01</leafValues></_>
        <_>
          <internalNodes>
            0 -1 98 -7.1800192818045616e-03</internalNodes>
          <leafValues>
            -8.0852568149566650e-01 1.2080784142017365e-01</leafValues></_>
        <_>
          <internalNodes>
            0 -1 86 3.9464021101593971e-03</internalNodes>
          <leafValues>
            8.2338653504848480e-02 -8.2133376598358154e-01</leafValues></_>
        <_>
          <internalNodes>
            0 -1 44 -1.9442193210124969e-02</internalNodes>
          <leafValues>
            -5.8757609128952026e-01 1.2412515282630920e-01</leafValues></_>
        <_>
          <internalNodes>
            0 -1 41 -1.7043838743120432e-03</internalNodes>
          <leafValues>
            2.6289591193199158e-01 -3.2339966297149658e-01</leafValues></_></weakClassifiers></_>
    <!-- stage 9 -->
    <_>
      <maxWeakCount>17</maxWeakCount>
      <stageThreshold>-8.0497747659683228e-01</stageThreshold>
      <weakClassifiers>
        <_>
          <internalNodes>
            0 -1 40 6.3489764928817749e-02</internalNodes>
          <leafValues>
            4.1989612579345703e-01 -7.6649743318557739e-01</leafValues></_>
        <_>
          <internalNodes>
            0 -1 59 -1.6651693731546402e-02</internalNodes>
          <leafValues>
            4.2724624276161194e-01 -2.8032398223876953e-01</leafValues></_>
        <_>
          <internalNodes>
            0 -1 76 4.1159089654684067e-02</internalNodes>
          <leafValues>
            -3.3909079432487488e-01 3.6867907643318176e-01</leafValues></_>
        <_>
          <internalNodes>
            0 -1 4 4.8006251454353333e-02</internalNodes>
          <leafValues>
            -1.9588921964168549e-01 5.1998060941696167e-01</leafValues></_>
        <_>
          <internalNodes>
            0 -1 80 1.8599787726998329e-02</internalNodes>
          <leafValues>
            8.9208282530307770e-02 -8.6127519607543945e-01</leafValues></_>
        <_>
          <internalNodes>
            0 -1 85 2.7991924434900284e-03</internalNodes>
          <leafValues>
            -3.7025609612464905e-01 2.4947702884674072e-01</leafValues></_>
        <_>
          <internalNodes>
            0 -1 61 9.6665602177381516e-03</internalNodes>
          <leafValues>
            -2.6950046420097351e-01 3.4876728057861328e-01</leafValues></_>
        <_>
          <internalNodes>
            0 -1 81 3.9688874967396259e-03</internalNodes>
          <leafValues>
            1.2604835629463196e-01 -9.3528914451599121e-01</leafValues></_>
        <_>
          <internalNodes>
            0 -1 22 9.0535581111907959e-03</internalNodes>
          <leafValues>
            -1.8649426102638245e-01 5.5433630943298340e-01</leafValues></_>
        <_>
          <internalNodes>
            0 -1 21 -7.1230311878025532e-03</internalNodes>
          <leafValues>
            4.9199789762496948e-01 -2.4304065108299255e-01</leafValues></_>
        <_>
          <internalNodes>
            0 -1 100 2.2373623214662075e-03</internalNodes>
          <leafValues>
            1.7804302275180817e-01 -6.7106747627258301e-01</leafValues></_>
        <_>
          <internalNodes>
            0 -1 112 -2.8984658420085907e-03</internalNodes>
          <leafValues>
            4.3266910314559937e-01 -2.3619370162487030e-01</leafValues></_>
        <_>
          <internalNodes>
            0 -1 134 -4.7675180248916149e-03</internalNodes>
          <leafValues>
            3.4561410546302795e-01 -2.6012057065963745e-01</leafValues></_>
        <_>
          <internalNodes>
            0 -1 77 -2.1926132030785084e-03</internalNodes>
          <leafValues>
            -8.6966323852539062e-01 1.0237816721200943e-01</leafValues></_>
        <_>
          <internalNodes>
            0 -1 128 9.2230867594480515e-03</internalNodes>
          <leafValues>
            -1.7890493571758270e-01 5.1419121026992798e-01</leafValues></_>
        <_>
          <internalNodes>
            0 -1 34 -3.1311932951211929e-02</internalNodes>
          <leafValues>
            -9.7281855344772339e-01 1.0256669670343399e-01</leafValues></_>
        <_>
          <internalNodes>
            0 -1 42 1.4339380897581577e-02</internalNodes>
          <leafValues>
            1.1696346849203110e-01 -6.7705667018890381e-01</leafValues></_></weakClassifiers></_>
    <!-- stage 10 -->
    <_>
      <maxWeakCount>18</maxWeakCount>
      <stageThreshold>-7.9442423582077026e-01</stageThreshold>
      <weakClassifiers>
        <_>
          <internalNodes>
            0 -1 12 8.9843757450580597e-03</internalNodes>
          <leafValues>
            -3.1021898612380028e-02 5.8229428529739380e-01</leafValues></_>
        <_>
          <internalNodes>
            0 -1 121 -1.3372433022595942e-04</internalNodes>
          <leafValues>
            2.8183087706565857e-01 -3.6696994304656982e-01</leafValues></_>
        <_>
          <internalNodes>
            0 -1 35 -1.2378347106277943e-02</internalNodes>
          <leafValues>
            2.6181158423423767e-01 -3.8653045892715454e-01</leafValues></_>
        <_>
          <internalNodes>
            0 -1 17 5.6146602146327496e-03</internalNodes>
          <leafValues>
            -4.8192420601844788e-01 2.1561425924301147e-01</leafValues></_>
        <_>
          <internalNodes>
            0 -1 72 -1.1781681329011917e-02</internalNodes>
          <leafValues>
            4.3250715732574463e-01 -2.2187754511833191e-01</leafValues></_>
        <_>
          <internalNodes>
            0 -1 89 5.1385469734668732e-02</internalNodes>
          <leafValues>
            -2.1416014432907104e-01 6.5883553028106689e-01</leafValues></_>
        <_>
          <internalNodes>
            0 -1 90 -3.5022567026317120e-03</internalNodes>
          <leafValues>
            4.5416620373725891e-01 -1.7279180884361267e-01</leafValues></_>
        <_>
          <internalNodes>
            0 -1 99 -1.0422782972455025e-02</internalNodes>
          <leafValues>
            -7.9300910234451294e-01 9.6050016582012177e-02</leafValues></_>
        <_>
          <internalNodes>
            0 -1 20 -6.0015465132892132e-03</internalNodes>
          <leafValues>
            4.8412671685218811e-01 -1.8070000410079956e-01</leafValues></_>
        <_>
          <internalNodes>
            0 -1 55 4.0866080671548843e-03</internalNodes>
          <leafValues>
            1.0878371447324753e-01 -8.6322915554046631e-01</leafValues></_>
        <_>
          <internalNodes>
            0 -1 144 -1.3571329414844513e-02</internalNodes>
          <leafValues>
            4.1602954268455505e-01 -2.0363707840442657e-01</leafValues></_>
        <_>
          <internalNodes>
            0 -1 131 -4.6494477428495884e-03</internalNodes>
          <leafValues>
            5.2515357732772827e-01 -1.6066458821296692e-01</leafValues></_>
        <_>
          <internalNodes>
            0 -1 138 -5.3886543028056622e-03</internalNodes>
          <leafValues>
            5.0516712665557861e-01 -1.6190715134143829e-01</leafValues></_>
        <_>
          <internalNodes>
            0 -1 108 5.8105913922190666e-03</internalNodes>
          <leafValues>
            1.1676912754774094e-01 -8.0346727371215820e-01</leafValues></_>
        <_>
          <internalNodes>
            0 -1 25 -5.3160837851464748e-03</internalNodes>
          <leafValues>
            3.9478951692581177e-01 -1.9681137800216675e-01</leafValues></_>
        <_>
          <internalNodes>
            0 -1 120 1.0818111710250378e-02</internalNodes>
          <leafValues>
            -1.5204019844532013e-01 5.0108504295349121e-01</leafValues></_>
        <_>
          <internalNodes>
            0 -1 116 3.3449116162955761e-03</internalNodes>
          <leafValues>
            9.8236963152885437e-02 -8.6150926351547241e-01</leafValues></_>
        <_>
          <internalNodes>
            0 -1 118 -6.0070734471082687e-03</internalNodes>
          <leafValues>
            5.4265356063842773e-01 -1.6455249488353729e-01</leafValues></_></weakClassifiers></_>
    <!-- stage 11 -->
    <_>
      <maxWeakCount>18</maxWeakCount>
      <stageThreshold>-8.7743335962295532e-01</stageThreshold>
      <weakClassifiers>
        <_>
          <internalNodes>
            0 -1 10 7.8826323151588440e-03</internalNodes>
          <leafValues>
            -1.4795918762683868e-01 5.3027141094207764e-01</leafValues></_>
        <_>
          <internalNodes>
            0 -1 101 1.5098770149052143e-02</internalNodes>
          <leafValues>
            1.4040911197662354e-01 -8.9391350746154785e-01</leafValues></_>
        <_>
          <internalNodes>
            0 -1 28 -1.0407615453004837e-02</internalNodes>
          <leafValues>
            1.9069160521030426e-01 -4.2953932285308838e-01</leafValues></_>
        <_>
          <internalNodes>
            0 -1 57 -1.8077597022056580e-02</internalNodes>
          <leafValues>
            2.6491227746009827e-01 -3.0618253350257874e-01</leafValues></_>
        <_>
          <internalNodes>
            0 -1 72 3.2178688794374466e-02</internalNodes>
          <leafValues>
            -1.1694601923227310e-01 7.5864756107330322e-01</leafValues></_>
        <_>
          <internalNodes>
            0 -1 111 1.1004898697137833e-02</internalNodes>
          <leafValues>
            -1.9634063541889191e-01 5.3801912069320679e-01</leafValues></_>
        <_>
          <internalNodes>
            0 -1 32 5.2394889295101166e-02</internalNodes>
          <leafValues>
            -1.4842458069324493e-01 5.5341023206710815e-01</leafValues></_>
        <_>
          <internalNodes>
            0 -1 129 1.0606553405523300e-02</internalNodes>
          <leafValues>
            -1.4736972749233246e-01 4.8703840374946594e-01</leafValues></_>
        <_>
          <internalNodes>
            0 -1 124 1.0848117992281914e-02</internalNodes>
          <leafValues>
            -2.2600722312927246e-01 3.7170019745826721e-01</leafValues></_>
        <_>
          <internalNodes>
            0 -1 13 1.5873089432716370e-02</internalNodes>
          <leafValues>
            -2.5502088665962219e-01 3.1794857978820801e-01</leafValues></_>
        <_>
          <internalNodes>
            0 -1 16 -3.0857478268444538e-03</internalNodes>
          <leafValues>
            2.6032754778862000e-01 -3.0271437764167786e-01</leafValues></_>
        <_>
          <internalNodes>
            0 -1 107 -7.2114695794880390e-03</internalNodes>
          <leafValues>
            -8.5314548015594482e-01 9.1172114014625549e-02</leafValues></_>
        <_>
          <internalNodes>
            0 -1 137 8.9101055637001991e-03</internalNodes>
          <leafValues>
            -1.4993879199028015e-01 5.7316666841506958e-01</leafValues></_>
        <_>
          <internalNodes>
            0 -1 14 3.8593746721744537e-02</internalNodes>
          <leafValues>
            -1.1928622424602509e-01 6.6681057214736938e-01</leafValues></_>
        <_>
          <internalNodes>
            0 -1 78 8.3635566988959908e-04</internalNodes>
          <leafValues>
            -2.3564338684082031e-01 3.1800344586372375e-01</leafValues></_>
        <_>
          <internalNodes>
            0 -1 115 5.0831045955419540e-03</internalNodes>
          <leafValues>
            9.5170684158802032e-02 -8.8121372461318970e-01</leafValues></_>
        <_>
          <internalNodes>
            0 -1 27 -4.2469846084713936e-03</internalNodes>
          <leafValues>
            3.2829937338829041e-01 -2.4420514702796936e-01</leafValues></_>
        <_>
          <internalNodes>
            0 -1 126 -1.2891057878732681e-02</internalNodes>
          <leafValues>
            4.0166607499122620e-01 -2.0125485956668854e-01</leafValues></_></weakClassifiers></_></stages>
  <features>
    <_>
      <rects>
        <_>
          0 1 2 16 -1.</_>
        <_>
          1 1 1 16 2.</_></rects>
      <tilted>0</tilted></_>
    <_>
      <rects>
        <_>
          0 1 4 13 -1.</_>
        <_>
          2 1 2 13 2.</_></rects>
      <tilted>0</tilted></_>
    <_>
      <rects>
        <_>
          0 1 4 19 -1.</_>
        <_>
          2 1 2 19 2.</_></rects>
      <tilted>0</tilted></_>
    <_>
      <rects>
        <_>
          0 1 15 2 -1.</_>
        <_>
          5 1 5 2 3.</_></rects>
      <tilted>0</tilted></_>
    <_>
      <rects>
        <_>
          0 3 6 7 -1.</_>
        <_>
          2 3 2 7 3.</_></rects>
      <tilted>0</tilted></_>
    <_>
      <rects>
        <_>
          0 4 4 12 -1.</_>
        <_>
          2 4 2 12 2.</_></rects>
      <tilted>0</tilted></_>
    <_>
      <rects>
        <_>
          0 4 4 16 -1.</_>
        <_>
          2 4 2 16 2.</_></rects>
      <tilted>0</tilted></_>
    <_>
      <rects>
        <_>
          0 4 6 15 -1.</_>
        <_>
          3 4 3 15 2.</_></rects>
      <tilted>0</tilted></_>
    <_>
      <rects>
        <_>
          0 5 2 12 -1.</_>
        <_>
          1 5 1 12 2.</_></rects>
      <tilted>0</tilted></_>
    <_>
      <rects>
        <_>
          0 6 4 9 -1.</_>
        <_>
          2 6 2 9 2.</_></rects>
      <tilted>0</tilted></_>
    <_>
      <rects>
        <_>
          0 7 4 6 -1.</_>
        <_>
          2 7 2 6 2.</_></rects>
      <tilted>0</tilted></_>
    <_>
      <rects>
        <_>
          0 7 4 10 -1.</_>
        <_>
          2 7 2 10 2.</_></rects>
      <tilted>0</tilted></_>
    <_>
      <rects>
        <_>
          0 9 4 3 -1.</_>
        <_>
          2 9 2 3 2.</_></rects>
      <tilted>0</tilted></_>
    <_>
      <rects>
        <_>
          0 9 10 3 -1.</_>
        <_>
          5 9 5 3 2.</_></rects>
      <tilted>0</tilted></_>
    <_>
      <rects>
        <_>
          0 18 15 1 -1.</_>
        <_>
          5 18 5 1 3.</_></rects>
      <tilted>0</tilted></_>
    <_>
      <rects>
        <_>
          1 6 1 9 -1.</_>
        <_>
          1 9 1 3 3.</_></rects>
      <tilted>0</tilted></_>
    <_>
      <rects>
        <_>
          1 7 13 9 -1.</_>
        <_>
          1 10 13 3 3.</_></rects>
      <tilted>0</tilted></_>
    <_>
      <rects>
        <_>
          2 0 14 2 -1.</_>
        <_>
          2 1 14 1 2.</_></rects>
      <tilted>0</tilted></_>
    <_>
      <rects>
        <_>
          2 0 15 4 -1.</_>
        <_>
          2 2 15 2 2.</_></rects>
      <tilted>0</tilted></_>
    <_>
      <rects>
        <_>
          2 3 4 12 -1.</_>
        <_>
          2 3 2 6 2.</_>
        <_>
          4 9 2 6 2.</_></rects>
      <tilted>0</tilted></_>
    <_>
      <rects>
        <_>
          2 5 3 6 -1.</_>
        <_>
          3 5 1 6 3.</_></rects>
      <tilted>0</tilted></_>
    <_>
      <rects>
        <_>
          2 5 2 12 -1.</_>
        <_>
          2 5 1 6 2.</_>
        <_>
          3 11 1 6 2.</_></rects>
      <tilted>0</tilted></_>
    <_>
      <rects>
        <_>
          2 6 2 8 -1.</_>
        <_>
          2 6 1 4 2.</_>
        <_>
          3 10 1 4 2.</_></rects>
      <tilted>0</tilted></_>
    <_>
      <rects>
        <_>
          2 6 3 6 -1.</_>
        <_>
          3 6 1 6 3.</_></rects>
      <tilted>0</tilted></_>
    <_>
      <rects>
        <_>
          2 7 3 2 -1.</_>
        <_>
          3 7 1 2 3.</_></rects>
      <tilted>0</tilted></_>
    <_>
      <rects>
        <_>
          2 7 2 8 -1.</_>
        <_>
          2 7 1 4 2.</_>
        <_>
          3 11 1 4 2.</_></rects>
      <tilted>0</tilted></_>
    <_>
      <rects>
        <_>
          2 8 16 6 -1.</_>
        <_>
          10 8 8 6 2.</_></rects>
      <tilted>0</tilted></_>
    <_>
      <rects>
        <_>
          2 17 9 1 -1.</_>
        <_>
          5 17 3 1 3.</_></rects>
      <tilted>0</tilted></_>
    <_>
      <rects>
        <_>
          2 18 18 2 -1.</_>
        <_>
          2 19 18 1 2.</_></rects>
      <tilted>0</tilted></_>
    <_>
      <rects>
        <_>
          3 0 14 2 -1.</_>
        <_>
          3 1 14 1 2.</_></rects>
      <tilted>0</tilted></_>
    <_>
      <rects>
        <_>
          3 0 15 2 -1.</_>
        <_>
          3 1 15 1 2.</_></rects>
      <tilted>0</tilted></_>
    <_>
      <rects>
        <_>
          3 0 16 2 -1.</_>
        <_>
          3 1 16 1 2.</_></rects>
      <tilted>0</tilted></_>
    <_>
      <rects>
        <_>
          3 1 14 6 -1.</_>
        <_>
          3 1 7 3 2.</_>
        <_>
          10 4 7 3 2.</_></rects>
      <tilted>0</tilted></_>
    <_>
      <rects>
        <_>
          3 8 14 4 -1.</_>
        <_>
          3 10 14 2 2.</_></rects>
      <tilted>0</tilted></_>
    <_>
      <rects>
        <_>
          3 9 14 3 -1.</_>
        <_>
          10 9 7 3 2.</_></rects>
      <tilted>0</tilted></_>
    <_>
      <rects>
        <_>
          3 18 13 2 -1.</_>
        <_>
          3 19 13 1 2.</_></rects>
      <tilted>0</tilted></_>
    <_>
      <rects>
        <_>
          4 0 12 2 -1.</_>
        <_>
          4 0 6 1 2.</_>
        <_>
          10 1 6 1 2.</_></rects>
      <tilted>0</tilted></_>
    <_>
      <rects>
        <_>
          4 0 12 2 -1.</_>
        <_>
          4 1 12 1 2.</_></rects>
      <tilted>0</tilted></_>
    <_>
      <rects>
        <_>
          4 0 12 4 -1.</_>
        <_>
          4 2 12 2 2.</_></rects>
      <tilted>0</tilted></_>
    <_>
      <rects>
        <_>
          4 0 14 4 -1.</_>
        <_>
          4 2 14 2 2.</_></rects>
      <tilted>0</tilted></_>
    <_>
      <rects>
        <_>
          4 3 6 14 -1.</_>
        <_>
          4 10 6 7 2.</_></rects>
      <tilted>0</tilted></_>
    <_>
      <rects>
        <_>
          4 7 6 5 -1.</_>
        <_>
          6 7 2 5 3.</_></rects>
      <tilted>0</tilted></_>
    <_>
      <rects>
        <_>
          4 9 16 1 -1.</_>
        <_>
          12 9 8 1 2.</_></rects>
      <tilted>0</tilted></_>
    <_>
      <rects>
        <_>
          4 18 12 2 -1.</_>
        <_>
          4 19 12 1 2.</_></rects>
      <tilted>0</tilted></_>
    <_>
      <rects>
        <_>
          5 0 15 1 -1.</_>
        <_>
          10 0 5 1 3.</_></rects>
      <tilted>0</tilted></_>
    <_>
      <rects>
        <_>
          5 0 11 4 -1.</_>
        <_>
          5 2 11 2 2.</_></rects>
      <tilted>0</tilted></_>
    <_>
      <rects>
        <_>
          5 0 14 4 -1.</_>
        <_>
          5 2 14 2 2.</_></rects>
      <tilted>0</tilted></_>
    <_>
      <rects>
        <_>
          5 1 9 2 -1.</_>
        <_>
          8 1 3 2 3.</_></rects>
      <tilted>0</tilted></_>
    <_>
      <rects>
        <_>
          5 2 8 2 -1.</_>
        <_>
          5 2 4 1 2.</_>
        <_>
          9 3 4 1 2.</_></rects>
      <tilted>0</tilted></_>
    <_>
      <rects>
        <_>
          5 2 15 1 -1.</_>
        <_>
          10 2 5 1 3.</_></rects>
      <tilted>0</tilted></_>
    <_>
      <rects>
        <_>
          5 2 8 2 -1.</_>
        <_>
          5 3 8 1 2.</_></rects>
      <tilted>0</tilted></_>
    <_>
      <rects>
        <_>
          5 3 9 12 -1.</_>
        <_>
          5 9 9 6 2.</_></rects>
      <tilted>0</tilted></_>
    <_>
      <rects>
        <_>
          5 4 9 10 -1.</_>
        <_>
          5 9 9 5 2.</_></rects>
      <tilted>0</tilted></_>
    <_>
      <rects>
        <_>
          5 7 4 3 -1.</_>
        <_>
          5 8 4 1 3.</_></rects>
      <tilted>0</tilted></_>
    <_>
      <rects>
        <_>
          5 7 5 3 -1.</_>
        <_>
          5 8 5 1 3.</_></rects>
      <tilted>0</tilted></_>
    <_>
      <rects>
        <_>
          5 8 4 3 -1.</_>
        <_>
          5 9 4 1 3.</_></rects>
      <tilted>0</tilted></_>
    <_>
      <rects>
        <_>
          5 9 10 2 -1.</_>
        <_>
          5 10 10 1 2.</_></rects>
      <tilted>0</tilted></_>
    <_>
      <rects>
        <_>
          5 13 12 7 -1.</_>
        <_>
          9 13 4 7 3.</_></rects>
      <tilted>0</tilted></_>
    <_>
      <rects>
        <_>
          5 18 9 1 -1.</_>
        <_>
          8 18 3 1 3.</_></rects>
      <tilted>0</tilted></_>
    <_>
      <rects>
        <_>
          5 18 10 2 -1.</_>
        <_>
          5 19 10 1 2.</_></rects>
      <tilted>0</tilted></_>
    <_>
      <rects>
        <_>
          5 18 11 2 -1.</_>
        <_>
          5 19 11 1 2.</_></rects>
      <tilted>0</tilted></_>
    <_>
      <rects>
        <_>
          6 1 4 10 -1.</_>
        <_>
          6 1 2 5 2.</_>
        <_>
          8 6 2 5 2.</_></rects>
      <tilted>0</tilted></_>
    <_>
      <rects>
        <_>
          6 1 9 1 -1.</_>
        <_>
          9 1 3 1 3.</_></rects>
      <tilted>0</tilted></_>
    <_>
      <rects>
        <_>
          6 1 10 19 -1.</_>
        <_>
          11 1 5 19 2.</_></rects>
      <tilted>0</tilted></_>
    <_>
      <rects>
        <_>
          6 5 10 10 -1.</_>
        <_>
          6 10 10 5 2.</_></rects>
      <tilted>0</tilted></_>
    <_>
      <rects>
        <_>
          6 7 4 6 -1.</_>
        <_>
          6 10 4 3 2.</_></rects>
      <tilted>0</tilted></_>
    <_>
      <rects>
        <_>
          6 8 3 3 -1.</_>
        <_>
          6 9 3 1 3.</_></rects>
      <tilted>0</tilted></_>
    <_>
      <rects>
        <_>
          6 8 8 4 -1.</_>
        <_>
          6 8 4 2 2.</_>
        <_>
          10 10 4 2 2.</_></rects>
      <tilted>0</tilted></_>
    <_>
      <rects>
        <_>
          6 8 7 3 -1.</_>
        <_>
          6 9 7 1 3.</_></rects>
      <tilted>0</tilted></_>
    <_>
      <rects>
        <_>
          6 8 10 2 -1.</_>
        <_>
          6 9 10 1 2.</_></rects>
      <tilted>0</tilted></_>
    <_>
      <rects>
        <_>
          6 11 3 5 -1.</_>
        <_>
          7 11 1 5 3.</_></rects>
      <tilted>0</tilted></_>
    <_>
      <rects>
        <_>
          6 18 9 2 -1.</_>
        <_>
          9 18 3 2 3.</_></rects>
      <tilted>0</tilted></_>
    <_>
      <rects>
        <_>
          6 18 12 1 -1.</_>
        <_>
          10 18 4 1 3.</_></rects>
      <tilted>0</tilted></_>
    <_>
      <rects>
        <_>
          6 18 8 2 -1.</_>
        <_>
          6 19 8 1 2.</_></rects>
      <tilted>0</tilted></_>
    <_>
      <rects>
        <_>
          6 18 10 2 -1.</_>
        <_>
          6 19 10 1 2.</_></rects>
      <tilted>0</tilted></_>
    <_>
      <rects>
        <_>
          6 18 11 2 -1.</_>
        <_>
          6 19 11 1 2.</_></rects>
      <tilted>0</tilted></_>
    <_>
      <rects>
        <_>
          7 0 10 4 -1.</_>
        <_>
          7 2 10 2 2.</_></rects>
      <tilted>0</tilted></_>
    <_>
      <rects>
        <_>
          7 8 2 2 -1.</_>
        <_>
          7 9 2 1 2.</_></rects>
      <tilted>0</tilted></_>
    <_>
      <rects>
        <_>
          7 9 2 5 -1.</_>
        <_>
          8 9 1 5 2.</_></rects>
      <tilted>0</tilted></_>
    <_>
      <rects>
        <_>
          7 11 3 5 -1.</_>
        <_>
          8 11 1 5 3.</_></rects>
      <tilted>0</tilted></_>
    <_>
      <rects>
        <_>
          7 11 6 5 -1.</_>
        <_>
          10 11 3 5 2.</_></rects>
      <tilted>0</tilted></_>
    <_>
      <rects>
        <_>
          7 12 3 3 -1.</_>
        <_>
          8 12 1 3 3.</_></rects>
      <tilted>0</tilted></_>
    <_>
      <rects>
        <_>
          7 18 7 2 -1.</_>
        <_>
          7 19 7 1 2.</_></rects>
      <tilted>0</tilted></_>
    <_>
      <rects>
        <_>
          8 1 9 4 -1.</_>
        <_>
          11 1 3 4 3.</_></rects>
      <tilted>0</tilted></_>
    <_>
      <rects>
        <_>
          8 1 4 2 -1.</_>
        <_>
          8 2 4 1 2.</_></rects>
      <tilted>0</tilted></_>
    <_>
      <rects>
        <_>
          8 7 8 8 -1.</_>
        <_>
          12 7 4 8 2.</_></rects>
      <tilted>0</tilted></_>
    <_>
      <rects>
        <_>
          8 8 5 3 -1.</_>
        <_>
          8 9 5 1 3.</_></rects>
      <tilted>0</tilted></_>
    <_>
      <rects>
        <_>
          8 12 3 3 -1.</_>
        <_>
          9 12 1 3 3.</_></rects>
      <tilted>0</tilted></_>
    <_>
      <rects>
        <_>
          8 14 2 1 -1.</_>
        <_>
          9 14 1 1 2.</_></rects>
      <tilted>0</tilted></_>
    <_>
      <rects>
        <_>
          8 17 12 2 -1.</_>
        <_>
          12 17 4 2 3.</_></rects>
      <tilted>0</tilted></_>
    <_>
      <rects>
        <_>
          9 0 2 3 -1.</_>
        <_>
          9 1 2 1 3.</_></rects>
      <tilted>0</tilted></_>
    <_>
      <rects>
        <_>
          9 0 2 4 -1.</_>
        <_>
          9 2 2 2 2.</_></rects>
      <tilted>0</tilted></_>
    <_>
      <rects>
        <_>
          9 12 3 5 -1.</_>
        <_>
          10 12 1 5 3.</_></rects>
      <tilted>0</tilted></_>
    <_>
      <rects>
        <_>
          9 13 3 3 -1.</_>
        <_>
          10 13 1 3 3.</_></rects>
      <tilted>0</tilted></_>
    <_>
      <rects>
        <_>
          9 13 9 6 -1.</_>
        <_>
          12 13 3 6 3.</_></rects>
      <tilted>0</tilted></_>
    <_>
      <rects>
        <_>
          9 14 2 2 -1.</_>
        <_>
          10 14 1 2 2.</_></rects>
      <tilted>0</tilted></_>
    <_>
      <rects>
        <_>
          9 14 3 3 -1.</_>
        <_>
          10 14 1 3 3.</_></rects>
      <tilted>0</tilted></_>
    <_>
      <rects>
        <_>
          9 16 3 4 -1.</_>
        <_>
          9 18 3 2 2.</_></rects>
      <tilted>0</tilted></_>
    <_>
      <rects>
        <_>
          10 3 3 6 -1.</_>
        <_>
          11 3 1 6 3.</_></rects>
      <tilted>0</tilted></_>
    <_>
      <rects>
        <_>
          10 4 3 14 -1.</_>
        <_>
          11 4 1 14 3.</_></rects>
      <tilted>0</tilted></_>
    <_>
      <rects>
        <_>
          10 6 2 3 -1.</_>
        <_>
          11 6 1 3 2.</_></rects>
      <tilted>0</tilted></_>
    <_>
      <rects>
        <_>
          10 7 7 6 -1.</_>
        <_>
          10 9 7 2 3.</_></rects>
      <tilted>0</tilted></_>
    <_>
      <rects>
        <_>
          10 11 3 6 -1.</_>
        <_>
          11 11 1 6 3.</_></rects>
      <tilted>0</tilted></_>
    <_>
      <rects>
        <_>
          10 13 3 1 -1.</_>
        <_>
          11 13 1 1 3.</_></rects>
      <tilted>0</tilted></_>
    <_>
      <rects>
        <_>
          10 13 2 3 -1.</_>
        <_>
          11 13 1 3 2.</_></rects>
      <tilted>0</tilted></_>
    <_>
      <rects>
        <_>
          10 13 3 4 -1.</_>
        <_>
          11 13 1 4 3.</_></rects>
      <tilted>0</tilted></_>
    <_>
      <rects>
        <_>
          11 3 1 14 -1.</_>
        <_>
          11 10 1 7 2.</_></rects>
      <tilted>0</tilted></_>
    <_>
      <rects>
        <_>
          11 4 3 6 -1.</_>
        <_>
          12 4 1 6 3.</_></rects>
      <tilted>0</tilted></_>
    <_>
      <rects>
        <_>
          11 6 5 3 -1.</_>
        <_>
          11 7 5 1 3.</_></rects>
      <tilted>0</tilted></_>
    <_>
      <rects>
        <_>
          11 9 4 3 -1.</_>
        <_>
          11 10 4 1 3.</_></rects>
      <tilted>0</tilted></_>
    <_>
      <rects>
        <_>
          11 12 8 6 -1.</_>
        <_>
          11 12 4 3 2.</_>
        <_>
          15 15 4 3 2.</_></rects>
      <tilted>0</tilted></_>
    <_>
      <rects>
        <_>
          12 0 3 2 -1.</_>
        <_>
          12 1 3 1 2.</_></rects>
      <tilted>0</tilted></_>
    <_>
      <rects>
        <_>
          12 2 4 2 -1.</_>
        <_>
          12 3 4 1 2.</_></rects>
      <tilted>0</tilted></_>
    <_>
      <rects>
        <_>
          12 9 5 3 -1.</_>
        <_>
          12 10 5 1 3.</_></rects>
      <tilted>0</tilted></_>
    <_>
      <rects>
        <_>
          12 10 4 3 -1.</_>
        <_>
          12 11 4 1 3.</_></rects>
      <tilted>0</tilted></_>
    <_>
      <rects>
        <_>
          12 10 5 3 -1.</_>
        <_>
          12 11 5 1 3.</_></rects>
      <tilted>0</tilted></_>
    <_>
      <rects>
        <_>
          12 11 3 3 -1.</_>
        <_>
          12 12 3 1 3.</_></rects>
      <tilted>0</tilted></_>
    <_>
      <rects>
        <_>
          12 11 5 3 -1.</_>
        <_>
          12 12 5 1 3.</_></rects>
      <tilted>0</tilted></_>
    <_>
      <rects>
        <_>
          12 16 6 1 -1.</_>
        <_>
          14 16 2 1 3.</_></rects>
      <tilted>0</tilted></_>
    <_>
      <rects>
        <_>
          13 0 3 2 -1.</_>
        <_>
          13 1 3 1 2.</_></rects>
      <tilted>0</tilted></_>
    <_>
      <rects>
        <_>
          13 0 5 3 -1.</_>
        <_>
          13 1 5 1 3.</_></rects>
      <tilted>0</tilted></_>
    <_>
      <rects>
        <_>
          13 6 7 9 -1.</_>
        <_>
          13 9 7 3 3.</_></rects>
      <tilted>0</tilted></_>
    <_>
      <rects>
        <_>
          13 8 3 2 -1.</_>
        <_>
          13 9 3 1 2.</_></rects>
      <tilted>0</tilted></_>
    <_>
      <rects>
        <_>
          13 13 6 2 -1.</_>
        <_>
          15 13 2 2 3.</_></rects>
      <tilted>0</tilted></_>
    <_>
      <rects>
        <_>
          14 1 4 10 -1.</_>
        <_>
          16 1 2 10 2.</_></rects>
      <tilted>0</tilted></_>
    <_>
      <rects>
        <_>
          14 2 4 10 -1.</_>
        <_>
          14 2 2 5 2.</_>
        <_>
          16 7 2 5 2.</_></rects>
      <tilted>0</tilted></_>
    <_>
      <rects>
        <_>
          14 4 6 2 -1.</_>
        <_>
          17 4 3 2 2.</_></rects>
      <tilted>0</tilted></_>
    <_>
      <rects>
        <_>
          14 7 3 3 -1.</_>
        <_>
          14 8 3 1 3.</_></rects>
      <tilted>0</tilted></_>
    <_>
      <rects>
        <_>
          15 6 4 3 -1.</_>
        <_>
          17 6 2 3 2.</_></rects>
      <tilted>0</tilted></_>
    <_>
      <rects>
        <_>
          15 8 4 6 -1.</_>
        <_>
          15 8 2 3 2.</_>
        <_>
          17 11 2 3 2.</_></rects>
      <tilted>0</tilted></_>
    <_>
      <rects>
        <_>
          16 3 4 15 -1.</_>
        <_>
          18 3 2 15 2.</_></rects>
      <tilted>0</tilted></_>
    <_>
      <rects>
        <_>
          16 8 3 4 -1.</_>
        <_>
          17 8 1 4 3.</_></rects>
      <tilted>0</tilted></_>
    <_>
      <rects>
        <_>
          16 8 4 4 -1.</_>
        <_>
          18 8 2 4 2.</_></rects>
      <tilted>0</tilted></_>
    <_>
      <rects>
        <_>
          16 9 4 3 -1.</_>
        <_>
          18 9 2 3 2.</_></rects>
      <tilted>0</tilted></_>
    <_>
      <rects>
        <_>
          16 10 4 1 -1.</_>
        <_>
          18 10 2 1 2.</_></rects>
      <tilted>0</tilted></_>
    <_>
      <rects>
        <_>
          16 10 4 2 -1.</_>
        <_>
          18 10 2 2 2.</_></rects>
      <tilted>0</tilted></_>
    <_>
      <rects>
        <_>
          17 5 3 12 -1.</_>
        <_>
          17 9 3 4 3.</_></rects>
      <tilted>0</tilted></_>
    <_>
      <rects>
        <_>
          17 7 3 2 -1.</_>
        <_>
          18 7 1 2 3.</_></rects>
      <tilted>0</tilted></_>
    <_>
      <rects>
        <_>
          17 7 3 3 -1.</_>
        <_>
          18 7 1 3 3.</_></rects>
      <tilted>0</tilted></_>
    <_>
      <rects>
        <_>
          18 1 2 16 -1.</_>
        <_>
          19 1 1 16 2.</_></rects>
      <tilted>0</tilted></_>
    <_>
      <rects>
        <_>
          18 3 2 16 -1.</_>
        <_>
          19 3 1 16 2.</_></rects>
      <tilted>0</tilted></_>
    <_>
      <rects>
        <_>
          18 4 2 14 -1.</_>
        <_>
          19 4 1 14 2.</_></rects>
      <tilted>0</tilted></_>
    <_>
      <rects>
        <_>
          18 6 2 10 -1.</_>
        <_>
          19 6 1 10 2.</_></rects>
      <tilted>0</tilted></_>
    <_>
      <rects>
        <_>
          18 6 2 12 -1.</_>
        <_>
          19 6 1 12 2.</_></rects>
      <tilted>0</tilted></_>
    <_>
      <rects>
        <_>
          18 7 2 6 -1.</_>
        <_>
          19 7 1 6 2.</_></rects>
      <tilted>0</tilted></_></features></cascade>
</opencv_storage>
